<?xml version="1.0"?>
<opencv_storage>
<cascade>
  <stageType>BOOST</stageType>
  <featureType>LBP</featureType>
  <height>45</height>
  <width>20</width>
  <stageParams>
    <boostType>GAB</boostType>
    <minHitRate>9.9900001287460327e-01</minHitRate>
    <maxFalseAlarm>5.0000000000000000e-01</maxFalseAlarm>
    <weightTrimRate>9.4999999999999996e-01</weightTrimRate>
    <maxDepth>1</maxDepth>
    <maxWeakCount>100</maxWeakCount></stageParams>
  <featureParams>
    <maxCatCount>256</maxCatCount>
    <featSize>1</featSize></featureParams>
  <stageNum>20</stageNum>
  <stages>
    <!-- stage 0 -->
    <_>
      <maxWeakCount>2</maxWeakCount>
      <stageThreshold>-2.1246764063835144e-01</stageThreshold>
      <weakClassifiers>
        <_>
          <internalNodes>
            0 -1 39 -783163936 -786983533 285546828 -610982627
            -1198816545 -107478396 -2013082977 -277761</internalNodes>
          <leafValues>
            -9.8073220252990723e-01 8.4088808298110962e-01</leafValues></_>
        <_>
          <internalNodes>
            0 -1 86 -614989963 -745295597 419500369 -619999167
            -1073487744 -788332543 -1467477540 -201337905</internalNodes>
          <leafValues>
            -7.9868745803833008e-01 7.6826453208923340e-01</leafValues></_></weakClassifiers></_>
    <!-- stage 1 -->
    <_>
      <maxWeakCount>3</maxWeakCount>
      <stageThreshold>-9.7405594587326050e-01</stageThreshold>
      <weakClassifiers>
        <_>
          <internalNodes>
            0 -1 38 -153768178 -676757351 -436190037 -204615483
            -267464453 -1163214695 -1029131285 -6581505</internalNodes>
          <leafValues>
            -9.0118575096130371e-01 7.8244972229003906e-01</leafValues></_>
        <_>
          <internalNodes>
            0 -1 23 -2040530945 -837170735 25190875 1103610521 144945707
            -586448896 -2079728641 -1346379013</internalNodes>
          <leafValues>
            -7.6227533817291260e-01 7.4922311305999756e-01</leafValues></_>
        <_>
          <internalNodes>
            0 -1 77 -746419494 -34307750 -2142240705 999358651
            -1467437893 1477967912 -2134867201 -2001213825</internalNodes>
          <leafValues>
            -7.9060077667236328e-01 6.8940520286560059e-01</leafValues></_></weakClassifiers></_>
    <!-- stage 2 -->
    <_>
      <maxWeakCount>6</maxWeakCount>
      <stageThreshold>-1.3504363298416138e+00</stageThreshold>
      <weakClassifiers>
        <_>
          <internalNodes>
            0 -1 66 -179220139 1409631249 1128354189 -1040330399
            -1433865828 -501232703 -108467523 -39064615</internalNodes>
          <leafValues>
            -8.4368735551834106e-01 7.4568575620651245e-01</leafValues></_>
        <_>
          <internalNodes>
            0 -1 24 -923730433 -212691071 1359031369 -652764925
            1174962331 -2138927093 -255540769 -137438721</internalNodes>
          <leafValues>
            -7.2948861122131348e-01 6.8398755788803101e-01</leafValues></_>
        <_>
          <internalNodes>
            0 -1 51 -97 -16777217 -4194435 -106809489 -2 -524289 -3
            -1417102662</internalNodes>
          <leafValues>
            -5.5634063482284546e-01 7.9116833209991455e-01</leafValues></_>
        <_>
          <internalNodes>
            0 -1 45 -211442901 -817516541 336650719 1905086729
            -926776149 -258109211 -1513088849 -2383313</internalNodes>
          <leafValues>
            -6.9364744424819946e-01 6.2901014089584351e-01</leafValues></_>
        <_>
          <internalNodes>
            0 -1 5 1326483759 -548042348 210833671 185271881 437241915
            -349863794 -8385289 666567949</internalNodes>
          <leafValues>
            -7.6535761356353760e-01 6.4270752668380737e-01</leafValues></_>
        <_>
          <internalNodes>
            0 -1 27 -822084897 -923402497 -134218765 -603982337
            419430394 -2071986306 -2064255117 -134742533</internalNodes>
          <leafValues>
            -5.4325270652770996e-01 8.3002024888992310e-01</leafValues></_></weakClassifiers></_>
    <!-- stage 3 -->
    <_>
      <maxWeakCount>4</maxWeakCount>
      <stageThreshold>-1.4750562906265259e+00</stageThreshold>
      <weakClassifiers>
        <_>
          <internalNodes>
            0 -1 25 -1505105666 -402414287 -1761585859 -342630384
            185198017 -553017326 -1987932005 -1411399029</internalNodes>
          <leafValues>
            -8.1663113832473755e-01 6.9230771064758301e-01</leafValues></_>
        <_>
          <internalNodes>
            0 -1 64 -396701473 -243587957 536989717 -237876921
            -1065122564 -1977378545 -1992111957 -1355123509</internalNodes>
          <leafValues>
            -6.5986430644989014e-01 7.1183037757873535e-01</leafValues></_>
        <_>
          <internalNodes>
            0 -1 61 67142283 -1525874541 1140935707 -846785525
            -519664968 -1196326768 -1601828389 -1052440557</internalNodes>
          <leafValues>
            -7.8527307510375977e-01 5.3988820314407349e-01</leafValues></_>
        <_>
          <internalNodes>
            0 -1 12 -211039237 1360085121 1359036723 1360367625 67618
            1778384897 1879279779 297126354</internalNodes>
          <leafValues>
            -7.2222656011581421e-01 6.2480634450912476e-01</leafValues></_></weakClassifiers></_>
    <!-- stage 4 -->
    <_>
      <maxWeakCount>5</maxWeakCount>
      <stageThreshold>-8.9350402355194092e-01</stageThreshold>
      <weakClassifiers>
        <_>
          <internalNodes>
            0 -1 91 -216008873 -150511536 -805172641 -45858815
            -1291181469 269666323 -393306029 -136347585</internalNodes>
          <leafValues>
            -7.7446806430816650e-01 6.7610621452331543e-01</leafValues></_>
        <_>
          <internalNodes>
            0 -1 58 -269088673 -708609 721289471 -1141438209 -8993
            -525313 -1426215937 -1006644737</internalNodes>
          <leafValues>
            -5.9478807449340820e-01 7.1355098485946655e-01</leafValues></_>
        <_>
          <internalNodes>
            0 -1 4 -178792969 1352077323 -1727692463 -729578991
            1646445083 1343392394 1619166386 1901313755</internalNodes>
          <leafValues>
            -7.7499133348464966e-01 5.6919503211975098e-01</leafValues></_>
        <_>
          <internalNodes>
            0 -1 17 -242109635 419696657 -921370337 491590435
            -2147446662 25165824 268628623 252117551</internalNodes>
          <leafValues>
            -6.7737901210784912e-01 6.5189999341964722e-01</leafValues></_>
        <_>
          <internalNodes>
            0 -1 33 -1496844385 -141458935 1566359569 -16559607
            -1925008949 973638913 -2075557087 -972835960</internalNodes>
          <leafValues>
            -7.2440296411514282e-01 6.0654067993164062e-01</leafValues></_></weakClassifiers></_>
    <!-- stage 5 -->
    <_>
      <maxWeakCount>6</maxWeakCount>
      <stageThreshold>-5.0608587265014648e-01</stageThreshold>
      <weakClassifiers>
        <_>
          <internalNodes>
            0 -1 77 -606369542 -573004309 251506815 962006271
            -1562574613 -119734273 100646655 -1979733249</internalNodes>
          <leafValues>
            -6.0216999053955078e-01 7.0009553432464600e-01</leafValues></_>
        <_>
          <internalNodes>
            0 -1 28 -402522689 -532442702 538190161 -401999615
            -2004692854 1078630539 -887092341 -18088241</internalNodes>
          <leafValues>
            -8.0146259069442749e-01 5.4178422689437866e-01</leafValues></_>
        <_>
          <internalNodes>
            0 -1 57 134285529 -618561519 -1434451839 -1853773663
            1210250171 -351731583 -918460261 -651049909</internalNodes>
          <leafValues>
            -7.5458139181137085e-01 5.0499850511550903e-01</leafValues></_>
        <_>
          <internalNodes>
            0 -1 98 -799297231 -217153438 393219 -464638777 1217118720
            -1845460857 -1050568575 -67109237</internalNodes>
          <leafValues>
            -6.5831798315048218e-01 6.3412493467330933e-01</leafValues></_>
        <_>
          <internalNodes>
            0 -1 36 -2052113603 -786333695 -1073250172 -1856175054
            1354846595 -2147483648 276890370 -1627444702</internalNodes>
          <leafValues>
            -7.5304681062698364e-01 5.3683489561080933e-01</leafValues></_>
        <_>
          <internalNodes>
            0 -1 11 2003041247 1434964369 134336725 1428787587 436382211
            1889239041 1344400049 1565649858</internalNodes>
          <leafValues>
            -7.2935944795608521e-01 5.1403129100799561e-01</leafValues></_></weakClassifiers></_>
    <!-- stage 6 -->
    <_>
      <maxWeakCount>5</maxWeakCount>
      <stageThreshold>-9.8962718248367310e-01</stageThreshold>
      <weakClassifiers>
        <_>
          <internalNodes>
            0 -1 46 -1365708034 -720369618 1627971715 -48446951
            -1207512557 -771686400 344492419 -8457317</internalNodes>
          <leafValues>
            -8.5714286565780640e-01 5.9247136116027832e-01</leafValues></_>
        <_>
          <internalNodes>
            0 -1 77 -772627749 -606467947 73849 466550793 -2113821797
            -1706426224 -2137810917 -1461084981</internalNodes>
          <leafValues>
            -6.4285385608673096e-01 5.8439874649047852e-01</leafValues></_>
        <_>
          <internalNodes>
            0 -1 72 -1566960707 -585534819 25237773 -2127314009
            -163478761 -1711111036 -2003469745 -1425340382</internalNodes>
          <leafValues>
            -7.0227050781250000e-01 5.6784504652023315e-01</leafValues></_>
        <_>
          <internalNodes>
            0 -1 41 -774113793 -576747107 92406041 -1156574941
            -2146858681 1350631585 -2008219637 959621739</internalNodes>
          <leafValues>
            -5.8515501022338867e-01 6.1844921112060547e-01</leafValues></_>
        <_>
          <internalNodes>
            0 -1 96 278526447 84005 -2147475357 1208307757 1342296233
            17014920 1182917023 1306251731</internalNodes>
          <leafValues>
            -6.4316737651824951e-01 5.7054251432418823e-01</leafValues></_></weakClassifiers></_>
    <!-- stage 7 -->
    <_>
      <maxWeakCount>5</maxWeakCount>
      <stageThreshold>-9.3170964717864990e-01</stageThreshold>
      <weakClassifiers>
        <_>
          <internalNodes>
            0 -1 48 -1360596993 -823136273 -285605889 -1511817247 -1
            -303 -65537 -518267573</internalNodes>
          <leafValues>
            -5.6215214729309082e-01 6.6258245706558228e-01</leafValues></_>
        <_>
          <internalNodes>
            0 -1 35 1905365166 -2040459103 -2147479467 -1861025663
            -254701331 -1597992862 -1341620055 -660227614</internalNodes>
          <leafValues>
            -7.7194648981094360e-01 4.7363013029098511e-01</leafValues></_>
        <_>
          <internalNodes>
            0 -1 99 -103811632 -266973123 -2132567671 -1340931945
            -648526447 1074370953 1371608301 -793572971</internalNodes>
          <leafValues>
            -7.8142154216766357e-01 4.1538009047508240e-01</leafValues></_>
        <_>
          <internalNodes>
            0 -1 53 -1794136261 -1065254818 49173 -1996479984
            -2147442496 20609 -1073739584 -1702416180</internalNodes>
          <leafValues>
            -6.3305228948593140e-01 6.0137283802032471e-01</leafValues></_>
        <_>
          <internalNodes>
            0 -1 31 1360092254 -581758697 -1052241853 -1701834603
            1090551872 -75267951 4227466 -711610225</internalNodes>
          <leafValues>
            -6.0467338562011719e-01 6.0506379604339600e-01</leafValues></_></weakClassifiers></_>
    <!-- stage 8 -->
    <_>
      <maxWeakCount>4</maxWeakCount>
      <stageThreshold>-4.6035212278366089e-01</stageThreshold>
      <weakClassifiers>
        <_>
          <internalNodes>
            0 -1 80 2130329628 1372594772 1104265390 1439113747 25176618
            2013274120 1141374987 -107011925</internalNodes>
          <leafValues>
            -7.5355452299118042e-01 6.0950762033462524e-01</leafValues></_>
        <_>
          <internalNodes>
            0 -1 50 -1340987879 -805187451 -2045700805 -178547363 377183
            -2147385326 680116055 706675219</internalNodes>
          <leafValues>
            -7.7759051322937012e-01 4.7976011037826538e-01</leafValues></_>
        <_>
          <internalNodes>
            0 -1 89 -955943563 1363552260 1073776139 1145507841
            -2012691802 -1957920638 -1811660278 -1928363969</internalNodes>
          <leafValues>
            -7.3159331083297729e-01 5.4432761669158936e-01</leafValues></_>
        <_>
          <internalNodes>
            0 -1 43 -530865253 -1725923248 21057844 -1858037616
            -804781944 -1072660408 9142344 -710176726</internalNodes>
          <leafValues>
            -6.5176039934158325e-01 5.4503560066223145e-01</leafValues></_></weakClassifiers></_>
    <!-- stage 9 -->
    <_>
      <maxWeakCount>7</maxWeakCount>
      <stageThreshold>-9.5939606428146362e-01</stageThreshold>
      <weakClassifiers>
        <_>
          <internalNodes>
            0 -1 3 -536820265 -732950438 1427636233 -48758781 1073793503
            -729806781 -727711602 -738246385</internalNodes>
          <leafValues>
            -7.3747014999389648e-01 6.0033869743347168e-01</leafValues></_>
        <_>
          <internalNodes>
            0 -1 79 33819327 1175715859 52101474 -1458011893 -532436909
            -484376575 278364351 -1089267957</internalNodes>
          <leafValues>
            -6.3655191659927368e-01 5.5012518167495728e-01</leafValues></_>
        <_>
          <internalNodes>
            0 -1 58 -1009272811 -782925487 138412381 193200129
            1208068609 -1195343869 -1979154117 -6979557</internalNodes>
          <leafValues>
            -5.5468750000000000e-01 6.1735826730728149e-01</leafValues></_>
        <_>
          <internalNodes>
            0 -1 92 -5116677 1744682547 452942639 -1325926279
            -1216872450 -1392508929 905359679 578203952</internalNodes>
          <leafValues>
            -5.5903893709182739e-01 6.1491721868515015e-01</leafValues></_>
        <_>
          <internalNodes>
            0 -1 52 -401320492 -662614009 317 -468182761 -1879015025
            -234209139 -1979610983 -1426054542</internalNodes>
          <leafValues>
            -7.0485007762908936e-01 4.5553043484687805e-01</leafValues></_>
        <_>
          <internalNodes>
            0 -1 7 -711263791 -683564902 -1056346030 -464207688
            -930004337 -1340078067 -1606278592 -410850429</internalNodes>
          <leafValues>
            -6.2600773572921753e-01 5.7842236757278442e-01</leafValues></_>
        <_>
          <internalNodes>
            0 -1 74 -996798435 1141919761 -1996488547 -1316913007
            -938942033 -1365475319 679480269 13572747</internalNodes>
          <leafValues>
            -6.5989309549331665e-01 5.5046987533569336e-01</leafValues></_></weakClassifiers></_>
    <!-- stage 10 -->
    <_>
      <maxWeakCount>7</maxWeakCount>
      <stageThreshold>-1.0354471206665039e+00</stageThreshold>
      <weakClassifiers>
        <_>
          <internalNodes>
            0 -1 30 -32771 -16777233 -3 -1506791425 -2 -8388737 -4
            -1288634499</internalNodes>
          <leafValues>
            -5.1885098218917847e-01 6.6059446334838867e-01</leafValues></_>
        <_>
          <internalNodes>
            0 -1 56 172197967 -737062525 -1592765135 -1653746917
            -1885891909 -671084288 159506063 -1190151221</internalNodes>
          <leafValues>
            -6.4130461215972900e-01 5.3396660089492798e-01</leafValues></_>
        <_>
          <internalNodes>
            0 -1 63 -972103473 -1006450559 50333981 -284442597 268511627
            -1204715379 -1044248165 -82489261</internalNodes>
          <leafValues>
            -5.7242196798324585e-01 6.0026222467422485e-01</leafValues></_>
        <_>
          <internalNodes>
            0 -1 102 -1970734869 479298 1107329025 -1065316085 826458242
            401538 -1609768621 211476446</internalNodes>
          <leafValues>
            -7.0717638731002808e-01 4.4905838370323181e-01</leafValues></_>
        <_>
          <internalNodes>
            0 -1 73 85008983 -37740534 -2130570915 1178808600 1111808137
            -1069236056 713819183 563023147</internalNodes>
          <leafValues>
            -6.7462730407714844e-01 4.8825481534004211e-01</leafValues></_>
        <_>
          <internalNodes>
            0 -1 32 -258713164 -1865035561 -1879047683 -1224699894
            -1047330568 714637466 -1602189160 872752162</internalNodes>
          <leafValues>
            -7.4003076553344727e-01 4.3429487943649292e-01</leafValues></_>
        <_>
          <internalNodes>
            0 -1 58 -380174049 -8969036 143917979 2069237833 -1307932661
            -511344128 -1467703295 -184467451</internalNodes>
          <leafValues>
            -6.5849149227142334e-01 4.8745894432067871e-01</leafValues></_></weakClassifiers></_>
    <!-- stage 11 -->
    <_>
      <maxWeakCount>6</maxWeakCount>
      <stageThreshold>-1.4151065349578857e+00</stageThreshold>
      <weakClassifiers>
        <_>
          <internalNodes>
            0 -1 47 -834648845 -332316328 -1073740975 -1069458941
            -587136947 -148813568 -1190592312 -73695222</internalNodes>
          <leafValues>
            -6.3919824361801147e-01 5.9687227010726929e-01</leafValues></_>
        <_>
          <internalNodes>
            0 -1 26 244315103 -2112490207 -183828461 -1248751603 49801
            -2095021949 50512355 -1924408429</internalNodes>
          <leafValues>
            -6.0817766189575195e-01 5.2485382556915283e-01</leafValues></_>
        <_>
          <internalNodes>
            0 -1 87 1461195761 -31244285 134226323 -1491795950
            -1449982977 596346890 -1828105229 86481537</internalNodes>
          <leafValues>
            -6.7349076271057129e-01 4.2889609932899475e-01</leafValues></_>
        <_>
          <internalNodes>
            0 -1 71 4591819 1478296193 -2141896575 1091637387
            -1450278902 -1759473648 -1996390209 865571483</internalNodes>
          <leafValues>
            -5.0296747684478760e-01 5.9344696998596191e-01</leafValues></_>
        <_>
          <internalNodes>
            0 -1 90 500812315 1444516108 50889059 -1860632572 525107
            1795721284 -1953969349 -83504577</internalNodes>
          <leafValues>
            -7.1750640869140625e-01 4.6597641706466675e-01</leafValues></_>
        <_>
          <internalNodes>
            0 -1 0 -1501177513 -6762495 -1811773068 -633207744
            1560821787 -232062577 -754869742 -166354218</internalNodes>
          <leafValues>
            -5.9028035402297974e-01 5.3443688154220581e-01</leafValues></_></weakClassifiers></_>
    <!-- stage 12 -->
    <_>
      <maxWeakCount>8</maxWeakCount>
      <stageThreshold>-7.5963622331619263e-01</stageThreshold>
      <weakClassifiers>
        <_>
          <internalNodes>
            0 -1 62 -21303297 -852481 -79 -537231489 -369098783 -8519683
            -131138 -1346834724</internalNodes>
          <leafValues>
            -5.5371898412704468e-01 5.9856629371643066e-01</leafValues></_>
        <_>
          <internalNodes>
            0 -1 14 -1049635870 -114061175 -1072544702 -1676046195
            167821315 -1391820749 1629618786 -848312025</internalNodes>
          <leafValues>
            -6.1495912075042725e-01 4.6810424327850342e-01</leafValues></_>
        <_>
          <internalNodes>
            0 -1 88 10244432 -788463597 -805207911 -1794555751
            -2013228164 -568747900 461562105 -71616440</internalNodes>
          <leafValues>
            -5.6790757179260254e-01 5.1765972375869751e-01</leafValues></_>
        <_>
          <internalNodes>
            0 -1 77 -611286830 -783019007 552972337 895680586
            -2146786917 -1971322880 -2071783744 -2130468862</internalNodes>
          <leafValues>
            -7.3059970140457153e-01 4.4139093160629272e-01</leafValues></_>
        <_>
          <internalNodes>
            0 -1 75 -1995358377 -2147467133 507991 134316033 -2147143677
            1073807362 -508755438 -1970380688</internalNodes>
          <leafValues>
            -7.0710813999176025e-01 3.9411079883575439e-01</leafValues></_>
        <_>
          <internalNodes>
            0 -1 18 -443468489 1083344964 -1987035659 520428607
            536957058 42778656 1258324634 1736831882</internalNodes>
          <leafValues>
            -6.3785594701766968e-01 4.5392802357673645e-01</leafValues></_>
        <_>
          <internalNodes>
            0 -1 104 -255343163 -989773307 1082135171 1757429774
            -2138470699 1225789600 -1073536773 875671592</internalNodes>
          <leafValues>
            -6.9353729486465454e-01 4.3076613545417786e-01</leafValues></_>
        <_>
          <internalNodes>
            0 -1 69 1373082908 -1816051693 268435578 654377681
            -1877995392 -391999104 151036290 -1384013694</internalNodes>
          <leafValues>
            -6.3866752386093140e-01 4.9639615416526794e-01</leafValues></_></weakClassifiers></_>
    <!-- stage 13 -->
    <_>
      <maxWeakCount>6</maxWeakCount>
      <stageThreshold>-1.4882830381393433e+00</stageThreshold>
      <weakClassifiers>
        <_>
          <internalNodes>
            0 -1 78 784277311 1143390303 1859452615 2061681231
            2147324303 -411304201 1926692607 997425115</internalNodes>
          <leafValues>
            -5.3644859790802002e-01 6.4507043361663818e-01</leafValues></_>
        <_>
          <internalNodes>
            0 -1 22 -937755837 -78052352 -518979295 2098548739 606835481
            1953091632 1347813513 -292234998</internalNodes>
          <leafValues>
            -6.1061155796051025e-01 5.2668035030364990e-01</leafValues></_>
        <_>
          <internalNodes>
            0 -1 94 -200420631 163680257 -1073331957 309985561
            -391524177 193861897 1149911629 1900765986</internalNodes>
          <leafValues>
            -6.5633511543273926e-01 4.7980666160583496e-01</leafValues></_>
        <_>
          <internalNodes>
            0 -1 59 -1979662169 -733753197 719 -920317677 -2130182144
            -2060386288 -1341419365 -577425273</internalNodes>
          <leafValues>
            -6.4725661277770996e-01 5.2013462781906128e-01</leafValues></_>
        <_>
          <internalNodes>
            0 -1 93 -1719283015 -1850129773 -1073692399 -2130632703
            361099 1112214186 17309760 1127905999</internalNodes>
          <leafValues>
            -7.2007322311401367e-01 4.3351057171821594e-01</leafValues></_>
        <_>
          <internalNodes>
            0 -1 40 1460916703 -703053039 1560937497 1919590489
            -1476263389 -888143871 -2128557938 -1130196086</internalNodes>
          <leafValues>
            -6.3853293657302856e-01 4.8452156782150269e-01</leafValues></_></weakClassifiers></_>
    <!-- stage 14 -->
    <_>
      <maxWeakCount>6</maxWeakCount>
      <stageThreshold>-1.3370250463485718e+00</stageThreshold>
      <weakClassifiers>
        <_>
          <internalNodes>
            0 -1 85 -967296749 -2008432447 -1543486113 -988463017
            8940146 1279787016 -2008495027 -360167345</internalNodes>
          <leafValues>
            -7.1948051452636719e-01 5.5720162391662598e-01</leafValues></_>
        <_>
          <internalNodes>
            0 -1 60 -455475109 -766111469 536870913 -1660813309
            -1592557397 -100524013 -1828486528 -1189549921</internalNodes>
          <leafValues>
            -7.2235697507858276e-01 4.2022371292114258e-01</leafValues></_>
        <_>
          <internalNodes>
            0 -1 9 -503471433 -407047428 -327689 -269287494 1602161551
            872216826 2146549562 -33763466</internalNodes>
          <leafValues>
            -4.7886940836906433e-01 6.4384490251541138e-01</leafValues></_>
        <_>
          <internalNodes>
            0 -1 29 -997731393 -1073393661 -1056946157 -133965311
            -645682807 1400899986 -2113372064 -168590965</internalNodes>
          <leafValues>
            -6.1271786689758301e-01 5.1608330011367798e-01</leafValues></_>
        <_>
          <internalNodes>
            0 -1 83 -12524000 12926978 -2113910427 30838786 -1835810807
            1132699651 -1937683893 -268703126</internalNodes>
          <leafValues>
            -6.2407350540161133e-01 4.7738289833068848e-01</leafValues></_>
        <_>
          <internalNodes>
            0 -1 101 -695082442 -1006526459 1090652352 -821245817
            -735538688 1719665156 -1073699954 -537443261</internalNodes>
          <leafValues>
            -5.9878963232040405e-01 4.8538312315940857e-01</leafValues></_></weakClassifiers></_>
    <!-- stage 15 -->
    <_>
      <maxWeakCount>7</maxWeakCount>
      <stageThreshold>-1.0137999057769775e+00</stageThreshold>
      <weakClassifiers>
        <_>
          <internalNodes>
            0 -1 105 -1827420786 17350720 1342357624 -1463774709 8685964
            12816384 25684175 72866446</internalNodes>
          <leafValues>
            -6.3235294818878174e-01 5.5201339721679688e-01</leafValues></_>
        <_>
          <internalNodes>
            0 -1 1 7322557 -645140741 2128871283 -688785409 233672486
            -2004058566 2134850851 -599752985</internalNodes>
          <leafValues>
            -5.1041221618652344e-01 5.5001455545425415e-01</leafValues></_>
        <_>
          <internalNodes>
            0 -1 19 -129992261 -1761495807 -788527851 755012884
            -1476144741 1493237762 134284161 42868948</internalNodes>
          <leafValues>
            -7.0957738161087036e-01 4.2390477657318115e-01</leafValues></_>
        <_>
          <internalNodes>
            0 -1 82 -1343246915 -1140851731 -1073742337 -33554449
            -1879167780 -1358954498 -839105327 -842034040</internalNodes>
          <leafValues>
            -5.1758444309234619e-01 6.2227934598922729e-01</leafValues></_>
        <_>
          <internalNodes>
            0 -1 2 -569421501 1570026498 -2145365226 301433921
            1141410308 -1027026934 1946233201 1493547361</internalNodes>
          <leafValues>
            -6.9241029024124146e-01 4.3865746259689331e-01</leafValues></_>
        <_>
          <internalNodes>
            0 -1 100 -813695085 -4097 -16912705 -33554441 -167774789
            2113404917 -713689643 -10095233</internalNodes>
          <leafValues>
            -4.6164226531982422e-01 6.8181544542312622e-01</leafValues></_>
        <_>
          <internalNodes>
            0 -1 49 -1054841364 960561169 -1279176185 -784217983 45448
            285212676 -2012675669 -805236726</internalNodes>
          <leafValues>
            -8.2117873430252075e-01 4.2918536067008972e-01</leafValues></_></weakClassifiers></_>
    <!-- stage 16 -->
    <_>
      <maxWeakCount>7</maxWeakCount>
      <stageThreshold>-8.8937789201736450e-01</stageThreshold>
      <weakClassifiers>
        <_>
          <internalNodes>
            0 -1 34 -1342185473 268431356 -1342210569 -549325313
            234845295 -1073775617 503313911 201311741</internalNodes>
          <leafValues>
            -5.5172413587570190e-01 5.7746475934982300e-01</leafValues></_>
        <_>
          <internalNodes>
            0 -1 79 100925973 1258291203 33600285 -1828511501 -401407869
            436308484 98315 389243451</internalNodes>
          <leafValues>
            -5.7806676626205444e-01 5.0584816932678223e-01</leafValues></_>
        <_>
          <internalNodes>
            0 -1 103 -1867522309 -1920139266 -677904781 -1272717337
            532602623 -562036738 -151716489 -2001547265</internalNodes>
          <leafValues>
            -4.6174696087837219e-01 6.5953803062438965e-01</leafValues></_>
        <_>
          <internalNodes>
            0 -1 21 -2008488945 209752516 1098974237 1406996480 264448
            277348480 1753356474 1892352527</internalNodes>
          <leafValues>
            -7.0143759250640869e-01 4.3244519829750061e-01</leafValues></_>
        <_>
          <internalNodes>
            0 -1 54 -766373059 1090584931 1073758293 -1866465149
            -1073704960 -1064185854 -532631392 -1060916568</internalNodes>
          <leafValues>
            -6.2794709205627441e-01 4.6915563941001892e-01</leafValues></_>
        <_>
          <internalNodes>
            0 -1 20 -805240813 1963000193 285212684 269549971
            -2138537169 -202670080 -2146959224 1899438155</internalNodes>
          <leafValues>
            -6.8027967214584351e-01 4.5390379428863525e-01</leafValues></_>
        <_>
          <internalNodes>
            0 -1 13 -721369973 159585540 -1592930238 -1290436479
            277350473 -1777139584 822610054 -209720825</internalNodes>
          <leafValues>
            -6.4044618606567383e-01 5.3092044591903687e-01</leafValues></_></weakClassifiers></_>
    <!-- stage 17 -->
    <_>
      <maxWeakCount>5</maxWeakCount>
      <stageThreshold>-5.2636170387268066e-01</stageThreshold>
      <weakClassifiers>
        <_>
          <internalNodes>
            0 -1 42 -1124110369 -8967233 -9 -1302053065 -16818236
            -10518658 -1073745937 2067857219</internalNodes>
          <leafValues>
            -3.9904609322547913e-01 6.7044281959533691e-01</leafValues></_>
        <_>
          <internalNodes>
            0 -1 8 -775839605 1208025156 8450 -1824505852 1343230729
            -939392896 411083130 -385774710</internalNodes>
          <leafValues>
            -5.5215317010879517e-01 5.6645423173904419e-01</leafValues></_>
        <_>
          <internalNodes>
            0 -1 67 -818007502 499003391 -1090568341 1554948091
            -1627410497 -1360007305 -1090618963 -1024533780</internalNodes>
          <leafValues>
            -5.1528704166412354e-01 6.2825727462768555e-01</leafValues></_>
        <_>
          <internalNodes>
            0 -1 16 1608435098 1078559104 168066 1560805395 -2115399410
            -2004874240 1610631333 1314975906</internalNodes>
          <leafValues>
            -5.5959749221801758e-01 5.4465681314468384e-01</leafValues></_>
        <_>
          <internalNodes>
            0 -1 10 -771501349 -783810552 269516928 -671055869
            -2130665472 2066237580 17498786 1478194093</internalNodes>
          <leafValues>
            -6.7402112483978271e-01 4.6816664934158325e-01</leafValues></_></weakClassifiers></_>
    <!-- stage 18 -->
    <_>
      <maxWeakCount>8</maxWeakCount>
      <stageThreshold>-1.2566514015197754e+00</stageThreshold>
      <weakClassifiers>
        <_>
          <internalNodes>
            0 -1 76 788442879 -121967395 506212735 851099647 -1896302461
            -33357825 266911743 1953759229</internalNodes>
          <leafValues>
            -5.2755904197692871e-01 6.1172163486480713e-01</leafValues></_>
        <_>
          <internalNodes>
            0 -1 68 -2117717673 -1060372412 268468253 -729808796
            -2147450871 -1979711360 -1069375409 -389906304</internalNodes>
          <leafValues>
            -5.9057062864303589e-01 5.1903945207595825e-01</leafValues></_>
        <_>
          <internalNodes>
            0 -1 97 -884293360 -1052471198 -1610579840 1342267522
            9970084 -1995833343 -1056661335 -376192817</internalNodes>
          <leafValues>
            -6.5994864702224731e-01 4.8360744118690491e-01</leafValues></_>
        <_>
          <internalNodes>
            0 -1 55 1159781915 2034401536 16785617 957616258 1007976584
            -1473724272 67798073 147619977</internalNodes>
          <leafValues>
            -5.6557315587997437e-01 5.9503471851348877e-01</leafValues></_>
        <_>
          <internalNodes>
            0 -1 70 -1622222053 2137972653 -537129430 -8193 1585352588
            -196611 -1887662148 -12305</internalNodes>
          <leafValues>
            -5.4198563098907471e-01 6.0637974739074707e-01</leafValues></_>
        <_>
          <internalNodes>
            0 -1 37 -1056898813 -1874833343 278432223 -1844965119 32835
            67633152 1746632867 1074120389</internalNodes>
          <leafValues>
            -6.5973973274230957e-01 5.6902670860290527e-01</leafValues></_>
        <_>
          <internalNodes>
            0 -1 65 -268521480 -1 805285247 1055371255 1811414521
            -1075838977 1308433474 -352589782</internalNodes>
          <leafValues>
            -5.0462019443511963e-01 6.8871605396270752e-01</leafValues></_>
        <_>
          <internalNodes>
            0 -1 81 -477884244 -1719418863 -2143244268 -1853095936
            -2112453941 -1291845628 570474571 2114153103</internalNodes>
          <leafValues>
            -7.0847249031066895e-01 4.8437234759330750e-01</leafValues></_></weakClassifiers></_>
    <!-- stage 19 -->
    <_>
      <maxWeakCount>7</maxWeakCount>
      <stageThreshold>-5.4543960094451904e-01</stageThreshold>
      <weakClassifiers>
        <_>
          <internalNodes>
            0 -1 95 2117024307 1870102391 -1077971593 1651998591
            -134777034 -98433 -9209857 -136612555</internalNodes>
          <leafValues>
            -5.2380955219268799e-01 6.2790697813034058e-01</leafValues></_>
        <_>
          <internalNodes>
            0 -1 79 533 139591690 524306 932315271 -2142035830 402655371
            1090519179 790827131</internalNodes>
          <leafValues>
            -7.1829950809478760e-01 4.6609720587730408e-01</leafValues></_>
        <_>
          <internalNodes>
            0 -1 44 -1438600705 -251592448 -787660733 1397755904
            444721539 -1467969520 134255427 -1149015102</internalNodes>
          <leafValues>
            -5.7941842079162598e-01 5.7469046115875244e-01</leafValues></_>
        <_>
          <internalNodes>
            0 -1 6 -1978916603 1375782144 1409392706 -1811873663
            34621697 25329675 1073980064 1120125026</internalNodes>
          <leafValues>
            -6.6711282730102539e-01 5.3260457515716553e-01</leafValues></_>
        <_>
          <internalNodes>
            0 -1 57 -243018127 -1584263149 4260355 1367949315 131713
            612368384 -1036384239 -1962858485</internalNodes>
          <leafValues>
            -4.7503945231437683e-01 6.9577831029891968e-01</leafValues></_>
        <_>
          <internalNodes>
            0 -1 15 269195038 -988741628 537985522 1350766866 134713356
            -1342136254 -503217245 -1198817214</internalNodes>
          <leafValues>
            -5.8936345577239990e-01 5.6534475088119507e-01</leafValues></_>
        <_>
          <internalNodes>
            0 -1 84 -381850541 675282807 -1342177710 1790901991
            1487818463 -1867579397 -1208109324 -2114988386</internalNodes>
          <leafValues>
            -4.5292994379997253e-01 7.5475627183914185e-01</leafValues></_></weakClassifiers></_></stages>
  <features>
    <_>
      <rect>
        0 9 4 3</rect></_>
    <_>
      <rect>
        0 12 5 10</rect></_>
    <_>
      <rect>
        0 17 2 4</rect></_>
    <_>
      <rect>
        0 17 5 4</rect></_>
    <_>
      <rect>
        0 18 3 3</rect></_>
    <_>
      <rect>
        0 24 6 4</rect></_>
    <_>
      <rect>
        0 25 2 4</rect></_>
    <_>
      <rect>
        1 8 4 3</rect></_>
    <_>
      <rect>
        1 9 6 9</rect></_>
    <_>
      <rect>
        1 10 5 9</rect></_>
    <_>
      <rect>
        1 15 2 4</rect></_>
    <_>
      <rect>
        1 15 2 5</rect></_>
    <_>
      <rect>
        1 16 2 4</rect></_>
    <_>
      <rect>
        1 21 1 1</rect></_>
    <_>
      <rect>
        1 22 1 1</rect></_>
    <_>
      <rect>
        1 23 1 1</rect></_>
    <_>
      <rect>
        2 13 1 2</rect></_>
    <_>
      <rect>
        2 23 5 4</rect></_>
    <_>
      <rect>
        2 26 4 3</rect></_>
    <_>
      <rect>
        3 12 3 3</rect></_>
    <_>
      <rect>
        3 24 2 1</rect></_>
    <_>
      <rect>
        3 27 5 2</rect></_>
    <_>
      <rect>
        4 15 2 4</rect></_>
    <_>
      <rect>
        4 16 2 3</rect></_>
    <_>
      <rect>
        4 16 2 4</rect></_>
    <_>
      <rect>
        4 16 3 3</rect></_>
    <_>
      <rect>
        4 18 1 2</rect></_>
    <_>
      <rect>
        4 19 1 2</rect></_>
    <_>
      <rect>
        4 19 2 2</rect></_>
    <_>
      <rect>
        4 21 1 1</rect></_>
    <_>
      <rect>
        4 23 2 2</rect></_>
    <_>
      <rect>
        4 24 2 1</rect></_>
    <_>
      <rect>
        5 10 5 4</rect></_>
    <_>
      <rect>
        5 14 2 4</rect></_>
    <_>
      <rect>
        5 15 1 3</rect></_>
    <_>
      <rect>
        5 15 4 3</rect></_>
    <_>
      <rect>
        5 17 4 7</rect></_>
    <_>
      <rect>
        5 18 5 7</rect></_>
    <_>
      <rect>
        5 19 4 2</rect></_>
    <_>
      <rect>
        5 20 4 2</rect></_>
    <_>
      <rect>
        5 23 1 1</rect></_>
    <_>
      <rect>
        5 23 1 2</rect></_>
    <_>
      <rect>
        5 25 1 1</rect></_>
    <_>
      <rect>
        6 11 3 9</rect></_>
    <_>
      <rect>
        6 16 1 2</rect></_>
    <_>
      <rect>
        6 16 4 3</rect></_>
    <_>
      <rect>
        6 17 1 4</rect></_>
    <_>
      <rect>
        6 20 2 2</rect></_>
    <_>
      <rect>
        6 22 2 1</rect></_>
    <_>
      <rect>
        6 22 3 1</rect></_>
    <_>
      <rect>
        6 22 3 5</rect></_>
    <_>
      <rect>
        6 24 2 2</rect></_>
    <_>
      <rect>
        6 25 2 2</rect></_>
    <_>
      <rect>
        7 8 3 10</rect></_>
    <_>
      <rect>
        7 10 3 6</rect></_>
    <_>
      <rect>
        7 14 1 1</rect></_>
    <_>
      <rect>
        7 16 1 2</rect></_>
    <_>
      <rect>
        7 20 2 2</rect></_>
    <_>
      <rect>
        7 21 2 1</rect></_>
    <_>
      <rect>
        7 21 2 2</rect></_>
    <_>
      <rect>
        7 22 1 2</rect></_>
    <_>
      <rect>
        7 22 2 1</rect></_>
    <_>
      <rect>
        7 23 1 2</rect></_>
    <_>
      <rect>
        7 23 2 1</rect></_>
    <_>
      <rect>
        7 24 1 2</rect></_>
    <_>
      <rect>
        7 25 3 2</rect></_>
    <_>
      <rect>
        8 15 4 5</rect></_>
    <_>
      <rect>
        8 16 2 1</rect></_>
    <_>
      <rect>
        8 19 3 2</rect></_>
    <_>
      <rect>
        8 20 2 1</rect></_>
    <_>
      <rect>
        8 21 2 1</rect></_>
    <_>
      <rect>
        8 23 1 1</rect></_>
    <_>
      <rect>
        8 25 2 3</rect></_>
    <_>
      <rect>
        8 26 3 3</rect></_>
    <_>
      <rect>
        8 26 4 2</rect></_>
    <_>
      <rect>
        9 18 2 6</rect></_>
    <_>
      <rect>
        9 20 1 2</rect></_>
    <_>
      <rect>
        9 21 1 1</rect></_>
    <_>
      <rect>
        9 22 1 1</rect></_>
    <_>
      <rect>
        9 23 1 1</rect></_>
    <_>
      <rect>
        10 21 1 1</rect></_>
    <_>
      <rect>
        10 22 1 1</rect></_>
    <_>
      <rect>
        10 26 2 1</rect></_>
    <_>
      <rect>
        10 28 3 5</rect></_>
    <_>
      <rect>
        11 6 3 4</rect></_>
    <_>
      <rect>
        11 18 2 2</rect></_>
    <_>
      <rect>
        11 20 2 3</rect></_>
    <_>
      <rect>
        11 25 3 1</rect></_>
    <_>
      <rect>
        11 26 1 1</rect></_>
    <_>
      <rect>
        12 15 2 4</rect></_>
    <_>
      <rect>
        12 19 2 1</rect></_>
    <_>
      <rect>
        12 19 2 2</rect></_>
    <_>
      <rect>
        13 12 2 3</rect></_>
    <_>
      <rect>
        13 20 2 5</rect></_>
    <_>
      <rect>
        14 14 2 3</rect></_>
    <_>
      <rect>
        14 16 1 3</rect></_>
    <_>
      <rect>
        14 16 2 5</rect></_>
    <_>
      <rect>
        14 18 1 3</rect></_>
    <_>
      <rect>
        14 20 1 2</rect></_>
    <_>
      <rect>
        14 20 1 3</rect></_>
    <_>
      <rect>
        14 23 1 1</rect></_>
    <_>
      <rect>
        15 19 1 2</rect></_>
    <_>
      <rect>
        17 11 1 7</rect></_>
    <_>
      <rect>
        17 17 1 4</rect></_>
    <_>
      <rect>
        17 19 1 1</rect></_>
    <_>
      <rect>
        17 22 1 1</rect></_></features></cascade>
</opencv_storage>
