<?xml version="1.0"?>
<opencv_storage>
<cascade>
  <stageType>BOOST</stageType>
  <featureType>HAAR</featureType>
  <height>20</height>
  <width>20</width>
  <stageParams>
    <boostType>GAB</boostType>
    <minHitRate>9.9500000476837158e-01</minHitRate>
    <maxFalseAlarm>5.0000000000000000e-01</maxFalseAlarm>
    <weightTrimRate>9.4999999999999996e-01</weightTrimRate>
    <maxDepth>1</maxDepth>
    <maxWeakCount>100</maxWeakCount></stageParams>
  <featureParams>
    <maxCatCount>0</maxCatCount>
    <featSize>1</featSize>
    <mode>BASIC</mode></featureParams>
  <stageNum>10</stageNum>
  <stages>
    <!-- stage 0 -->
    <_>
      <maxWeakCount>3</maxWeakCount>
      <stageThreshold>-1.2377374172210693e+00</stageThreshold>
      <weakClassifiers>
        <_>
          <internalNodes>
            0 -1 58 1.3357007876038551e-02</internalNodes>
          <leafValues>
            -8.4597569704055786e-01 8.4198296070098877e-01</leafValues></_>
        <_>
          <internalNodes>
            0 -1 66 -1.6627661883831024e-02</internalNodes>
          <leafValues>
            5.4681783914566040e-01 -7.9073119163513184e-01</leafValues></_>
        <_>
          <internalNodes>
            0 -1 20 6.2591219320893288e-03</internalNodes>
          <leafValues>
            -6.2995666265487671e-01 3.9896947145462036e-01</leafValues></_></weakClassifiers></_>
    <!-- stage 1 -->
    <_>
      <maxWeakCount>5</maxWeakCount>
      <stageThreshold>-1.1672122478485107e+00</stageThreshold>
      <weakClassifiers>
        <_>
          <internalNodes>
            0 -1 46 3.0707102268934250e-02</internalNodes>
          <leafValues>
            -6.3584798574447632e-01 7.6127183437347412e-01</leafValues></_>
        <_>
          <internalNodes>
            0 -1 41 -5.6130789220333099e-02</internalNodes>
          <leafValues>
            4.6716946363449097e-01 -6.5101569890975952e-01</leafValues></_>
        <_>
          <internalNodes>
            0 -1 69 2.6293534319847822e-03</internalNodes>
          <leafValues>
            -4.4535392522811890e-01 4.7571614384651184e-01</leafValues></_>
        <_>
          <internalNodes>
            0 -1 34 -3.2822636421769857e-04</internalNodes>
          <leafValues>
            4.8752886056900024e-01 -4.3466854095458984e-01</leafValues></_>
        <_>
          <internalNodes>
            0 -1 53 -1.4595534652471542e-02</internalNodes>
          <leafValues>
            5.5592650175094604e-01 -3.9744588732719421e-01</leafValues></_></weakClassifiers></_>
    <!-- stage 2 -->
    <_>
      <maxWeakCount>10</maxWeakCount>
      <stageThreshold>-1.3682726621627808e+00</stageThreshold>
      <weakClassifiers>
        <_>
          <internalNodes>
            0 -1 2 2.5817558169364929e-02</internalNodes>
          <leafValues>
            -3.6284890770912170e-01 7.2515618801116943e-01</leafValues></_>
        <_>
          <internalNodes>
            0 -1 37 4.2819236405193806e-03</internalNodes>
          <leafValues>
            -6.1219835281372070e-01 4.2244964838027954e-01</leafValues></_>
        <_>
          <internalNodes>
            0 -1 72 -1.0400194674730301e-02</internalNodes>
          <leafValues>
            2.9821678996086121e-01 -6.9857889413833618e-01</leafValues></_>
        <_>
          <internalNodes>
            0 -1 119 -1.8553217523731291e-04</internalNodes>
          <leafValues>
            3.1177729368209839e-01 -6.4055943489074707e-01</leafValues></_>
        <_>
          <internalNodes>
            0 -1 43 -4.2851030826568604e-02</internalNodes>
          <leafValues>
            2.8188356757164001e-01 -5.3526991605758667e-01</leafValues></_>
        <_>
          <internalNodes>
            0 -1 59 1.3453041203320026e-02</internalNodes>
          <leafValues>
            -2.5216060876846313e-01 6.2553364038467407e-01</leafValues></_>
        <_>
          <internalNodes>
            0 -1 53 -2.0483193919062614e-02</internalNodes>
          <leafValues>
            5.1934480667114258e-01 -2.7161425352096558e-01</leafValues></_>
        <_>
          <internalNodes>
            0 -1 110 -6.8541583605110645e-03</internalNodes>
          <leafValues>
            5.1321268081665039e-01 -2.3885546624660492e-01</leafValues></_>
        <_>
          <internalNodes>
            0 -1 94 7.3775206692516804e-03</internalNodes>
          <leafValues>
            1.7227037250995636e-01 -7.4290949106216431e-01</leafValues></_>
        <_>
          <internalNodes>
            0 -1 113 -1.3008627574890852e-03</internalNodes>
          <leafValues>
            -8.4032499790191650e-01 1.2241030484437943e-01</leafValues></_></weakClassifiers></_>
    <!-- stage 3 -->
    <_>
      <maxWeakCount>12</maxWeakCount>
      <stageThreshold>-1.1462721824645996e+00</stageThreshold>
      <weakClassifiers>
        <_>
          <internalNodes>
            0 -1 35 6.0511741787195206e-02</internalNodes>
          <leafValues>
            -2.3651844263076782e-01 6.5978199243545532e-01</leafValues></_>
        <_>
          <internalNodes>
            0 -1 92 1.3568213209509850e-02</internalNodes>
          <leafValues>
            -3.2970216870307922e-01 5.5632948875427246e-01</leafValues></_>
        <_>
          <internalNodes>
            0 -1 31 -8.8633666746318340e-04</internalNodes>
          <leafValues>
            3.9050778746604919e-01 -3.9299356937408447e-01</leafValues></_>
        <_>
          <internalNodes>
            0 -1 17 4.6384230256080627e-02</internalNodes>
          <leafValues>
            -3.7176147103309631e-01 4.0605294704437256e-01</leafValues></_>
        <_>
          <internalNodes>
            0 -1 71 -4.9329577013850212e-03</internalNodes>
          <leafValues>
            1.7662490904331207e-01 -6.8178188800811768e-01</leafValues></_>
        <_>
          <internalNodes>
            0 -1 115 -7.1938987821340561e-04</internalNodes>
          <leafValues>
            -7.5818842649459839e-01 1.4283433556556702e-01</leafValues></_>
        <_>
          <internalNodes>
            0 -1 86 -1.1199866421520710e-02</internalNodes>
          <leafValues>
            3.3317801356315613e-01 -3.4989374876022339e-01</leafValues></_>
        <_>
          <internalNodes>
            0 -1 3 2.9438484460115433e-02</internalNodes>
          <leafValues>
            -1.5902283787727356e-01 6.9563615322113037e-01</leafValues></_>
        <_>
          <internalNodes>
            0 -1 99 -3.0622417107224464e-03</internalNodes>
          <leafValues>
            1.8204826116561890e-01 -6.8720400333404541e-01</leafValues></_>
        <_>
          <internalNodes>
            0 -1 118 -1.5311592724174261e-03</internalNodes>
          <leafValues>
            -8.6532938480377197e-01 1.0305722802877426e-01</leafValues></_>
        <_>
          <internalNodes>
            0 -1 101 1.8388739554211497e-03</internalNodes>
          <leafValues>
            -2.9416933655738831e-01 3.7287378311157227e-01</leafValues></_>
        <_>
          <internalNodes>
            0 -1 89 2.7667775284498930e-03</internalNodes>
          <leafValues>
            -3.4363496303558350e-01 3.9781793951988220e-01</leafValues></_></weakClassifiers></_>
    <!-- stage 4 -->
    <_>
      <maxWeakCount>11</maxWeakCount>
      <stageThreshold>-1.1375564336776733e+00</stageThreshold>
      <weakClassifiers>
        <_>
          <internalNodes>
            0 -1 77 1.3614501804113388e-03</internalNodes>
          <leafValues>
            -2.8845208883285522e-01 6.6956520080566406e-01</leafValues></_>
        <_>
          <internalNodes>
            0 -1 50 2.6392627041786909e-03</internalNodes>
          <leafValues>
            -6.9891977310180664e-01 2.9560968279838562e-01</leafValues></_>
        <_>
          <internalNodes>
            0 -1 104 3.0324151739478111e-03</internalNodes>
          <leafValues>
            -3.8531601428985596e-01 3.9455717802047729e-01</leafValues></_>
        <_>
          <internalNodes>
            0 -1 38 5.0595849752426147e-03</internalNodes>
          <leafValues>
            -5.4277682304382324e-01 2.3707269132137299e-01</leafValues></_>
        <_>
          <internalNodes>
            0 -1 81 1.2755468487739563e-03</internalNodes>
          <leafValues>
            -3.9871156215667725e-01 2.8027758002281189e-01</leafValues></_>
        <_>
          <internalNodes>
            0 -1 49 -1.3132163323462009e-02</internalNodes>
          <leafValues>
            5.3575372695922852e-01 -2.6030331850051880e-01</leafValues></_>
        <_>
          <internalNodes>
            0 -1 22 6.6292241215705872e-02</internalNodes>
          <leafValues>
            -2.2488111257553101e-01 6.1338126659393311e-01</leafValues></_>
        <_>
          <internalNodes>
            0 -1 40 -5.3245137678459287e-04</internalNodes>
          <leafValues>
            1.9028922915458679e-01 -6.6614395380020142e-01</leafValues></_>
        <_>
          <internalNodes>
            0 -1 45 -3.6951736547052860e-03</internalNodes>
          <leafValues>
            4.9214789271354675e-01 -2.4050833284854889e-01</leafValues></_>
        <_>
          <internalNodes>
            0 -1 112 3.1877541914582253e-03</internalNodes>
          <leafValues>
            -2.5187355279922485e-01 4.4634473323822021e-01</leafValues></_>
        <_>
          <internalNodes>
            0 -1 19 2.7527539059519768e-03</internalNodes>
          <leafValues>
            1.8949426710605621e-01 -6.3092488050460815e-01</leafValues></_></weakClassifiers></_>
    <!-- stage 5 -->
    <_>
      <maxWeakCount>16</maxWeakCount>
      <stageThreshold>-1.1107803583145142e+00</stageThreshold>
      <weakClassifiers>
        <_>
          <internalNodes>
            0 -1 8 1.6152581200003624e-02</internalNodes>
          <leafValues>
            -1.2728752195835114e-01 6.7271572351455688e-01</leafValues></_>
        <_>
          <internalNodes>
            0 -1 6 2.1989122033119202e-02</internalNodes>
          <leafValues>
            -2.1539300680160522e-01 5.7564795017242432e-01</leafValues></_>
        <_>
          <internalNodes>
            0 -1 62 2.0729273092001677e-04</internalNodes>
          <leafValues>
            -7.7576130628585815e-01 1.9176217913627625e-01</leafValues></_>
        <_>
          <internalNodes>
            0 -1 106 1.0168302105739713e-04</internalNodes>
          <leafValues>
            -4.8037925362586975e-01 1.8752776086330414e-01</leafValues></_>
        <_>
          <internalNodes>
            0 -1 88 -5.4424628615379333e-05</internalNodes>
          <leafValues>
            1.5938688814640045e-01 -6.1221468448638916e-01</leafValues></_>
        <_>
          <internalNodes>
            0 -1 32 -1.0493266163393855e-03</internalNodes>
          <leafValues>
            2.2421392798423767e-01 -3.8125902414321899e-01</leafValues></_>
        <_>
          <internalNodes>
            0 -1 118 1.3765094336122274e-03</internalNodes>
          <leafValues>
            8.7943121790885925e-02 -7.3649579286575317e-01</leafValues></_>
        <_>
          <internalNodes>
            0 -1 118 -7.4133300222456455e-04</internalNodes>
          <leafValues>
            -6.0223287343978882e-01 1.4924812316894531e-01</leafValues></_>
        <_>
          <internalNodes>
            0 -1 63 2.7130533009767532e-02</internalNodes>
          <leafValues>
            -1.8492813408374786e-01 5.5314099788665771e-01</leafValues></_>
        <_>
          <internalNodes>
            0 -1 0 6.5397217869758606e-02</internalNodes>
          <leafValues>
            -1.7119856178760529e-01 5.5964112281799316e-01</leafValues></_>
        <_>
          <internalNodes>
            0 -1 98 1.2742215767502785e-04</internalNodes>
          <leafValues>
            -2.9543712735176086e-01 3.0656024813652039e-01</leafValues></_>
        <_>
          <internalNodes>
            0 -1 56 2.0157266408205032e-02</internalNodes>
          <leafValues>
            -2.0817624032497406e-01 4.9533566832542419e-01</leafValues></_>
        <_>
          <internalNodes>
            0 -1 21 -8.6607500910758972e-02</internalNodes>
          <leafValues>
            2.8913033008575439e-01 -3.3133882284164429e-01</leafValues></_>
        <_>
          <internalNodes>
            0 -1 70 1.2518808944150805e-04</internalNodes>
          <leafValues>
            -6.4313763380050659e-01 1.1773948371410370e-01</leafValues></_>
        <_>
          <internalNodes>
            0 -1 15 -1.7976347357034683e-02</internalNodes>
          <leafValues>
            4.0851727128028870e-01 -2.1474653482437134e-01</leafValues></_>
        <_>
          <internalNodes>
            0 -1 30 -2.1542781032621861e-03</internalNodes>
          <leafValues>
            -8.8885873556137085e-01 1.0318410396575928e-01</leafValues></_></weakClassifiers></_>
    <!-- stage 6 -->
    <_>
      <maxWeakCount>16</maxWeakCount>
      <stageThreshold>-8.5709112882614136e-01</stageThreshold>
      <weakClassifiers>
        <_>
          <internalNodes>
            0 -1 5 5.7568280026316643e-03</internalNodes>
          <leafValues>
            -1.3144907355308533e-01 6.2088400125503540e-01</leafValues></_>
        <_>
          <internalNodes>
            0 -1 14 2.7569150552153587e-03</internalNodes>
          <leafValues>
            -3.0789926648139954e-01 4.3361669778823853e-01</leafValues></_>
        <_>
          <internalNodes>
            0 -1 20 5.7161478325724602e-03</internalNodes>
          <leafValues>
            -6.0023725032806396e-01 1.8943281471729279e-01</leafValues></_>
        <_>
          <internalNodes>
            0 -1 105 -3.1082352623343468e-02</internalNodes>
          <leafValues>
            4.9941313266754150e-01 -2.2300073504447937e-01</leafValues></_>
        <_>
          <internalNodes>
            0 -1 93 2.4607361410744488e-04</internalNodes>
          <leafValues>
            -4.6908748149871826e-01 1.6720524430274963e-01</leafValues></_>
        <_>
          <internalNodes>
            0 -1 81 1.6120903892442584e-03</internalNodes>
          <leafValues>
            -3.4831631183624268e-01 2.7116069197654724e-01</leafValues></_>
        <_>
          <internalNodes>
            0 -1 119 -1.6488385153934360e-04</internalNodes>
          <leafValues>
            1.6983403265476227e-01 -5.5113184452056885e-01</leafValues></_>
        <_>
          <internalNodes>
            0 -1 11 -2.9028938151896000e-03</internalNodes>
          <leafValues>
            4.4150677323341370e-01 -2.0957840979099274e-01</leafValues></_>
        <_>
          <internalNodes>
            0 -1 113 -1.0419792961329222e-03</internalNodes>
          <leafValues>
            -7.4646645784378052e-01 1.3332043588161469e-01</leafValues></_>
        <_>
          <internalNodes>
            0 -1 87 1.1988360201939940e-03</internalNodes>
          <leafValues>
            -3.3382797241210938e-01 2.6495558023452759e-01</leafValues></_>
        <_>
          <internalNodes>
            0 -1 107 -5.5574979633092880e-03</internalNodes>
          <leafValues>
            -6.9402402639389038e-01 1.2666383385658264e-01</leafValues></_>
        <_>
          <internalNodes>
            0 -1 100 3.0056477990001440e-03</internalNodes>
          <leafValues>
            9.4269528985023499e-02 -7.4146360158920288e-01</leafValues></_>
        <_>
          <internalNodes>
            0 -1 1 6.5553508698940277e-02</internalNodes>
          <leafValues>
            -2.2763119637966156e-01 4.1771411895751953e-01</leafValues></_>
        <_>
          <internalNodes>
            0 -1 84 9.6319289878010750e-04</internalNodes>
          <leafValues>
            -4.0096548199653625e-01 2.2368600964546204e-01</leafValues></_>
        <_>
          <internalNodes>
            0 -1 73 5.3187613375484943e-03</internalNodes>
          <leafValues>
            7.6710067689418793e-02 -8.7323540449142456e-01</leafValues></_>
        <_>
          <internalNodes>
            0 -1 57 3.2638311386108398e-02</internalNodes>
          <leafValues>
            7.7636979520320892e-02 -7.6252615451812744e-01</leafValues></_></weakClassifiers></_>
    <!-- stage 7 -->
    <_>
      <maxWeakCount>18</maxWeakCount>
      <stageThreshold>-8.8799709081649780e-01</stageThreshold>
      <weakClassifiers>
        <_>
          <internalNodes>
            0 -1 60 -9.8349247127771378e-03</internalNodes>
          <leafValues>
            6.2055337429046631e-01 -1.0428386181592941e-01</leafValues></_>
        <_>
          <internalNodes>
            0 -1 91 1.7547672614455223e-02</internalNodes>
          <leafValues>
            -2.1114912629127502e-01 5.2135795354843140e-01</leafValues></_>
        <_>
          <internalNodes>
            0 -1 65 2.2329753264784813e-03</internalNodes>
          <leafValues>
            -5.8147835731506348e-01 1.9264549016952515e-01</leafValues></_>
        <_>
          <internalNodes>
            0 -1 39 2.1433790680021048e-03</internalNodes>
          <leafValues>
            -3.0128911137580872e-01 2.5243780016899109e-01</leafValues></_>
        <_>
          <internalNodes>
            0 -1 111 -3.4563960507512093e-03</internalNodes>
          <leafValues>
            1.9937580823898315e-01 -3.9367696642875671e-01</leafValues></_>
        <_>
          <internalNodes>
            0 -1 51 1.8646199023351073e-03</internalNodes>
          <leafValues>
            -2.7852547168731689e-01 3.1571844220161438e-01</leafValues></_>
        <_>
          <internalNodes>
            0 -1 85 -8.3798486739397049e-03</internalNodes>
          <leafValues>
            2.6417136192321777e-01 -3.2313844561576843e-01</leafValues></_>
        <_>
          <internalNodes>
            0 -1 74 -9.8932012915611267e-03</internalNodes>
          <leafValues>
            -6.9330793619155884e-01 1.0727746784687042e-01</leafValues></_>
        <_>
          <internalNodes>
            0 -1 48 1.4848666265606880e-02</internalNodes>
          <leafValues>
            7.8290298581123352e-02 -8.9519459009170532e-01</leafValues></_>
        <_>
          <internalNodes>
            0 -1 114 -8.3129818085581064e-04</internalNodes>
          <leafValues>
            -7.3536062240600586e-01 8.4007292985916138e-02</leafValues></_>
        <_>
          <internalNodes>
            0 -1 78 -8.8452443014830351e-04</internalNodes>
          <leafValues>
            -8.9778542518615723e-01 7.0940792560577393e-02</leafValues></_>
        <_>
          <internalNodes>
            0 -1 4 3.0764129478484392e-03</internalNodes>
          <leafValues>
            -2.1245646476745605e-01 3.4612917900085449e-01</leafValues></_>
        <_>
          <internalNodes>
            0 -1 23 8.6564775556325912e-03</internalNodes>
          <leafValues>
            1.1413338780403137e-01 -6.4202934503555298e-01</leafValues></_>
        <_>
          <internalNodes>
            0 -1 29 -4.7311076195910573e-04</internalNodes>
          <leafValues>
            2.2818367183208466e-01 -3.1950321793556213e-01</leafValues></_>
        <_>
          <internalNodes>
            0 -1 83 8.5556122940033674e-04</internalNodes>
          <leafValues>
            -3.4654143452644348e-01 2.4776394665241241e-01</leafValues></_>
        <_>
          <internalNodes>
            0 -1 33 4.1087386198341846e-03</internalNodes>
          <leafValues>
            1.0384830832481384e-01 -8.1118416786193848e-01</leafValues></_>
        <_>
          <internalNodes>
            0 -1 80 1.2764651328325272e-02</internalNodes>
          <leafValues>
            6.6125363111495972e-02 -8.0280405282974243e-01</leafValues></_>
        <_>
          <internalNodes>
            0 -1 90 7.0471293292939663e-04</internalNodes>
          <leafValues>
            -2.7168729901313782e-01 2.4142615497112274e-01</leafValues></_></weakClassifiers></_>
    <!-- stage 8 -->
    <_>
      <maxWeakCount>21</maxWeakCount>
      <stageThreshold>-9.0891724824905396e-01</stageThreshold>
      <weakClassifiers>
        <_>
          <internalNodes>
            0 -1 36 5.8892467059195042e-03</internalNodes>
          <leafValues>
            -1.7307692766189575e-01 5.6974250078201294e-01</leafValues></_>
        <_>
          <internalNodes>
            0 -1 7 1.5125174075365067e-02</internalNodes>
          <leafValues>
            -2.0253847539424896e-01 5.1473671197891235e-01</leafValues></_>
        <_>
          <internalNodes>
            0 -1 110 -8.1254858523607254e-03</internalNodes>
          <leafValues>
            3.8936871290206909e-01 -1.9976830482482910e-01</leafValues></_>
        <_>
          <internalNodes>
            0 -1 67 -1.6931031132116914e-04</internalNodes>
          <leafValues>
            1.6545836627483368e-01 -5.0748521089553833e-01</leafValues></_>
        <_>
          <internalNodes>
            0 -1 38 8.0591253936290741e-03</internalNodes>
          <leafValues>
            -4.3922773003578186e-01 1.3205991685390472e-01</leafValues></_>
        <_>
          <internalNodes>
            0 -1 52 -1.8843783065676689e-02</internalNodes>
          <leafValues>
            4.3320232629776001e-01 -1.9456079602241516e-01</leafValues></_>
        <_>
          <internalNodes>
            0 -1 44 4.3016038835048676e-03</internalNodes>
          <leafValues>
            -1.5441873669624329e-01 4.8495790362358093e-01</leafValues></_>
        <_>
          <internalNodes>
            0 -1 116 -1.7349341942463070e-04</internalNodes>
          <leafValues>
            2.0808032155036926e-01 -3.8954842090606689e-01</leafValues></_>
        <_>
          <internalNodes>
            0 -1 34 -2.4985009804368019e-04</internalNodes>
          <leafValues>
            1.4449715614318848e-01 -4.2526993155479431e-01</leafValues></_>
        <_>
          <internalNodes>
            0 -1 117 -7.7957729808986187e-04</internalNodes>
          <leafValues>
            -5.8859187364578247e-01 1.2740042805671692e-01</leafValues></_>
        <_>
          <internalNodes>
            0 -1 20 7.3066451586782932e-03</internalNodes>
          <leafValues>
            -4.7790926694869995e-01 1.7459909617900848e-01</leafValues></_>
        <_>
          <internalNodes>
            0 -1 97 1.9539247732609510e-03</internalNodes>
          <leafValues>
            -2.2592455148696899e-01 3.0831030011177063e-01</leafValues></_>
        <_>
          <internalNodes>
            0 -1 75 2.9792539775371552e-02</internalNodes>
          <leafValues>
            1.0378780215978622e-01 -6.2158721685409546e-01</leafValues></_>
        <_>
          <internalNodes>
            0 -1 79 -1.3871546834707260e-03</internalNodes>
          <leafValues>
            8.7356589734554291e-02 -6.9966131448745728e-01</leafValues></_>
        <_>
          <internalNodes>
            0 -1 16 -2.3602463304996490e-01</internalNodes>
          <leafValues>
            -6.9211298227310181e-01 7.5155720114707947e-02</leafValues></_>
        <_>
          <internalNodes>
            0 -1 109 3.1507860403507948e-03</internalNodes>
          <leafValues>
            6.2244255095720291e-02 -7.8334504365921021e-01</leafValues></_>
        <_>
          <internalNodes>
            0 -1 28 -6.4998050220310688e-03</internalNodes>
          <leafValues>
            -6.8204855918884277e-01 7.4822470545768738e-02</leafValues></_>
        <_>
          <internalNodes>
            0 -1 27 -3.5009309649467468e-03</internalNodes>
          <leafValues>
            -8.0025786161422729e-01 6.0983128845691681e-02</leafValues></_>
        <_>
          <internalNodes>
            0 -1 10 2.1560419350862503e-02</internalNodes>
          <leafValues>
            8.3694711327552795e-02 -6.1485505104064941e-01</leafValues></_>
        <_>
          <internalNodes>
            0 -1 96 -1.3502526562660933e-03</internalNodes>
          <leafValues>
            4.8005712032318115e-01 -1.3718281686306000e-01</leafValues></_>
        <_>
          <internalNodes>
            0 -1 55 -3.0458901077508926e-02</internalNodes>
          <leafValues>
            2.5629678368568420e-01 -2.5133201479911804e-01</leafValues></_></weakClassifiers></_>
    <!-- stage 9 -->
    <_>
      <maxWeakCount>20</maxWeakCount>
      <stageThreshold>-7.6299172639846802e-01</stageThreshold>
      <weakClassifiers>
        <_>
          <internalNodes>
            0 -1 108 3.1857399735599756e-03</internalNodes>
          <leafValues>
            -8.1247255206108093e-02 5.9735178947448730e-01</leafValues></_>
        <_>
          <internalNodes>
            0 -1 12 3.2591265626251698e-03</internalNodes>
          <leafValues>
            -2.0350784063339233e-01 4.5441690087318420e-01</leafValues></_>
        <_>
          <internalNodes>
            0 -1 68 1.0306400945410132e-03</internalNodes>
          <leafValues>
            -2.7344340085983276e-01 3.0763441324234009e-01</leafValues></_>
        <_>
          <internalNodes>
            0 -1 18 6.1077989637851715e-02</internalNodes>
          <leafValues>
            -2.5602641701698303e-01 3.1159013509750366e-01</leafValues></_>
        <_>
          <internalNodes>
            0 -1 54 -6.5348753705620766e-03</internalNodes>
          <leafValues>
            4.1671332716941833e-01 -2.0087526738643646e-01</leafValues></_>
        <_>
          <internalNodes>
            0 -1 42 5.7455990463495255e-03</internalNodes>
          <leafValues>
            -2.6829373836517334e-01 3.4684532880783081e-01</leafValues></_>
        <_>
          <internalNodes>
            0 -1 25 1.8367007374763489e-02</internalNodes>
          <leafValues>
            1.5336290001869202e-01 -5.9460926055908203e-01</leafValues></_>
        <_>
          <internalNodes>
            0 -1 103 1.0214108042418957e-02</internalNodes>
          <leafValues>
            6.1871416866779327e-02 -7.8295111656188965e-01</leafValues></_>
        <_>
          <internalNodes>
            0 -1 82 -4.5229573734104633e-03</internalNodes>
          <leafValues>
            -8.1523370742797852e-01 7.5733490288257599e-02</leafValues></_>
        <_>
          <internalNodes>
            0 -1 47 2.7303598471917212e-04</internalNodes>
          <leafValues>
            -3.7206315994262695e-01 1.5300464630126953e-01</leafValues></_>
        <_>
          <internalNodes>
            0 -1 76 4.0052067488431931e-03</internalNodes>
          <leafValues>
            -2.1162116527557373e-01 3.3567923307418823e-01</leafValues></_>
        <_>
          <internalNodes>
            0 -1 95 9.1046299785375595e-03</internalNodes>
          <leafValues>
            1.1188140511512756e-01 -6.8433529138565063e-01</leafValues></_>
        <_>
          <internalNodes>
            0 -1 120 -7.9312771558761597e-03</internalNodes>
          <leafValues>
            -5.7869702577590942e-01 9.8938293755054474e-02</leafValues></_>
        <_>
          <internalNodes>
            0 -1 102 -6.9753527641296387e-03</internalNodes>
          <leafValues>
            -8.7654012441635132e-01 4.9075860530138016e-02</leafValues></_>
        <_>
          <internalNodes>
            0 -1 13 -1.1148166377097368e-03</internalNodes>
          <leafValues>
            4.0854349732398987e-01 -1.5564250946044922e-01</leafValues></_>
        <_>
          <internalNodes>
            0 -1 26 -5.6379381567239761e-03</internalNodes>
          <leafValues>
            2.7527791261672974e-01 -2.1224993467330933e-01</leafValues></_>
        <_>
          <internalNodes>
            0 -1 24 -3.5757727921009064e-02</internalNodes>
          <leafValues>
            -7.3906654119491577e-01 7.0906899869441986e-02</leafValues></_>
        <_>
          <internalNodes>
            0 -1 9 -4.2128004133701324e-03</internalNodes>
          <leafValues>
            -5.2502822875976562e-01 9.2743828892707825e-02</leafValues></_>
        <_>
          <internalNodes>
            0 -1 61 1.3506264984607697e-01</internalNodes>
          <leafValues>
            6.0796353965997696e-02 -8.4265810251235962e-01</leafValues></_>
        <_>
          <internalNodes>
            0 -1 64 3.5557135939598083e-02</internalNodes>
          <leafValues>
            -1.6056077182292938e-01 5.7351779937744141e-01</leafValues></_></weakClassifiers></_></stages>
  <features>
    <_>
      <rects>
        <_>
          1 2 12 3 -1.</_>
        <_>
          5 2 4 3 3.</_></rects>
      <tilted>0</tilted></_>
    <_>
      <rects>
        <_>
          1 2 15 2 -1.</_>
        <_>
          6 2 5 2 3.</_></rects>
      <tilted>0</tilted></_>
    <_>
      <rects>
        <_>
          1 2 18 1 -1.</_>
        <_>
          7 2 6 1 3.</_></rects>
      <tilted>0</tilted></_>
    <_>
      <rects>
        <_>
          1 3 12 1 -1.</_>
        <_>
          5 3 4 1 3.</_></rects>
      <tilted>0</tilted></_>
    <_>
      <rects>
        <_>
          2 14 6 1 -1.</_>
        <_>
          5 14 3 1 2.</_></rects>
      <tilted>0</tilted></_>
    <_>
      <rects>
        <_>
          3 0 8 2 -1.</_>
        <_>
          3 0 4 1 2.</_>
        <_>
          7 1 4 1 2.</_></rects>
      <tilted>0</tilted></_>
    <_>
      <rects>
        <_>
          3 8 6 6 -1.</_>
        <_>
          5 8 2 6 3.</_></rects>
      <tilted>0</tilted></_>
    <_>
      <rects>
        <_>
          3 10 6 3 -1.</_>
        <_>
          5 10 2 3 3.</_></rects>
      <tilted>0</tilted></_>
    <_>
      <rects>
        <_>
          4 1 12 1 -1.</_>
        <_>
          8 1 4 1 3.</_></rects>
      <tilted>0</tilted></_>
    <_>
      <rects>
        <_>
          4 2 1 4 -1.</_>
        <_>
          4 4 1 2 2.</_></rects>
      <tilted>0</tilted></_>
    <_>
      <rects>
        <_>
          4 6 3 9 -1.</_>
        <_>
          4 9 3 3 3.</_></rects>
      <tilted>0</tilted></_>
    <_>
      <rects>
        <_>
          4 7 2 4 -1.</_>
        <_>
          5 7 1 4 2.</_></rects>
      <tilted>0</tilted></_>
    <_>
      <rects>
        <_>
          4 8 2 3 -1.</_>
        <_>
          5 8 1 3 2.</_></rects>
      <tilted>0</tilted></_>
    <_>
      <rects>
        <_>
          4 9 2 1 -1.</_>
        <_>
          5 9 1 1 2.</_></rects>
      <tilted>0</tilted></_>
    <_>
      <rects>
        <_>
          4 9 3 2 -1.</_>
        <_>
          5 9 1 2 3.</_></rects>
      <tilted>0</tilted></_>
    <_>
      <rects>
        <_>
          4 14 12 4 -1.</_>
        <_>
          4 16 12 2 2.</_></rects>
      <tilted>0</tilted></_>
    <_>
      <rects>
        <_>
          5 0 11 10 -1.</_>
        <_>
          5 5 11 5 2.</_></rects>
      <tilted>0</tilted></_>
    <_>
      <rects>
        <_>
          5 1 10 6 -1.</_>
        <_>
          5 3 10 2 3.</_></rects>
      <tilted>0</tilted></_>
    <_>
      <rects>
        <_>
          5 1 11 6 -1.</_>
        <_>
          5 3 11 2 3.</_></rects>
      <tilted>0</tilted></_>
    <_>
      <rects>
        <_>
          5 2 6 2 -1.</_>
        <_>
          5 2 3 1 2.</_>
        <_>
          8 3 3 1 2.</_></rects>
      <tilted>0</tilted></_>
    <_>
      <rects>
        <_>
          5 2 10 3 -1.</_>
        <_>
          5 3 10 1 3.</_></rects>
      <tilted>0</tilted></_>
    <_>
      <rects>
        <_>
          5 2 10 8 -1.</_>
        <_>
          5 6 10 4 2.</_></rects>
      <tilted>0</tilted></_>
    <_>
      <rects>
        <_>
          5 3 15 2 -1.</_>
        <_>
          10 3 5 2 3.</_></rects>
      <tilted>0</tilted></_>
    <_>
      <rects>
        <_>
          5 4 3 12 -1.</_>
        <_>
          5 10 3 6 2.</_></rects>
      <tilted>0</tilted></_>
    <_>
      <rects>
        <_>
          5 5 6 4 -1.</_>
        <_>
          8 5 3 4 2.</_></rects>
      <tilted>0</tilted></_>
    <_>
      <rects>
        <_>
          5 5 8 4 -1.</_>
        <_>
          9 5 4 4 2.</_></rects>
      <tilted>0</tilted></_>
    <_>
      <rects>
        <_>
          5 8 1 10 -1.</_>
        <_>
          5 13 1 5 2.</_></rects>
      <tilted>0</tilted></_>
    <_>
      <rects>
        <_>
          5 8 2 3 -1.</_>
        <_>
          5 9 2 1 3.</_></rects>
      <tilted>0</tilted></_>
    <_>
      <rects>
        <_>
          5 8 2 4 -1.</_>
        <_>
          5 10 2 2 2.</_></rects>
      <tilted>0</tilted></_>
    <_>
      <rects>
        <_>
          5 9 2 1 -1.</_>
        <_>
          6 9 1 1 2.</_></rects>
      <tilted>0</tilted></_>
    <_>
      <rects>
        <_>
          5 9 1 3 -1.</_>
        <_>
          5 10 1 1 3.</_></rects>
      <tilted>0</tilted></_>
    <_>
      <rects>
        <_>
          5 9 2 2 -1.</_>
        <_>
          6 9 1 2 2.</_></rects>
      <tilted>0</tilted></_>
    <_>
      <rects>
        <_>
          5 9 2 3 -1.</_>
        <_>
          6 9 1 3 2.</_></rects>
      <tilted>0</tilted></_>
    <_>
      <rects>
        <_>
          5 9 2 3 -1.</_>
        <_>
          5 10 2 1 3.</_></rects>
      <tilted>0</tilted></_>
    <_>
      <rects>
        <_>
          5 10 2 1 -1.</_>
        <_>
          6 10 1 1 2.</_></rects>
      <tilted>0</tilted></_>
    <_>
      <rects>
        <_>
          6 0 8 6 -1.</_>
        <_>
          6 2 8 2 3.</_></rects>
      <tilted>0</tilted></_>
    <_>
      <rects>
        <_>
          6 1 9 1 -1.</_>
        <_>
          9 1 3 1 3.</_></rects>
      <tilted>0</tilted></_>
    <_>
      <rects>
        <_>
          6 1 8 2 -1.</_>
        <_>
          6 2 8 1 2.</_></rects>
      <tilted>0</tilted></_>
    <_>
      <rects>
        <_>
          6 1 8 3 -1.</_>
        <_>
          6 2 8 1 3.</_></rects>
      <tilted>0</tilted></_>
    <_>
      <rects>
        <_>
          6 2 3 5 -1.</_>
        <_>
          7 2 1 5 3.</_></rects>
      <tilted>0</tilted></_>
    <_>
      <rects>
        <_>
          6 2 1 14 -1.</_>
        <_>
          6 9 1 7 2.</_></rects>
      <tilted>0</tilted></_>
    <_>
      <rects>
        <_>
          6 2 9 8 -1.</_>
        <_>
          6 6 9 4 2.</_></rects>
      <tilted>0</tilted></_>
    <_>
      <rects>
        <_>
          6 3 6 1 -1.</_>
        <_>
          9 3 3 1 2.</_></rects>
      <tilted>0</tilted></_>
    <_>
      <rects>
        <_>
          6 3 9 6 -1.</_>
        <_>
          6 6 9 3 2.</_></rects>
      <tilted>0</tilted></_>
    <_>
      <rects>
        <_>
          6 6 2 6 -1.</_>
        <_>
          6 6 1 3 2.</_>
        <_>
          7 9 1 3 2.</_></rects>
      <tilted>0</tilted></_>
    <_>
      <rects>
        <_>
          6 13 1 6 -1.</_>
        <_>
          6 16 1 3 2.</_></rects>
      <tilted>0</tilted></_>
    <_>
      <rects>
        <_>
          7 0 6 6 -1.</_>
        <_>
          7 2 6 2 3.</_></rects>
      <tilted>0</tilted></_>
    <_>
      <rects>
        <_>
          7 1 1 3 -1.</_>
        <_>
          7 2 1 1 3.</_></rects>
      <tilted>0</tilted></_>
    <_>
      <rects>
        <_>
          7 1 3 6 -1.</_>
        <_>
          8 1 1 6 3.</_></rects>
      <tilted>0</tilted></_>
    <_>
      <rects>
        <_>
          7 2 6 3 -1.</_>
        <_>
          10 2 3 3 2.</_></rects>
      <tilted>0</tilted></_>
    <_>
      <rects>
        <_>
          7 2 6 3 -1.</_>
        <_>
          7 3 6 1 3.</_></rects>
      <tilted>0</tilted></_>
    <_>
      <rects>
        <_>
          7 3 3 4 -1.</_>
        <_>
          8 3 1 4 3.</_></rects>
      <tilted>0</tilted></_>
    <_>
      <rects>
        <_>
          7 3 6 3 -1.</_>
        <_>
          9 3 2 3 3.</_></rects>
      <tilted>0</tilted></_>
    <_>
      <rects>
        <_>
          7 3 6 4 -1.</_>
        <_>
          9 3 2 4 3.</_></rects>
      <tilted>0</tilted></_>
    <_>
      <rects>
        <_>
          7 3 6 1 -1.</_>
        <_>
          10 3 3 1 2.</_></rects>
      <tilted>0</tilted></_>
    <_>
      <rects>
        <_>
          7 4 6 6 -1.</_>
        <_>
          7 7 6 3 2.</_></rects>
      <tilted>0</tilted></_>
    <_>
      <rects>
        <_>
          7 6 3 9 -1.</_>
        <_>
          7 9 3 3 3.</_></rects>
      <tilted>0</tilted></_>
    <_>
      <rects>
        <_>
          7 6 8 3 -1.</_>
        <_>
          11 6 4 3 2.</_></rects>
      <tilted>0</tilted></_>
    <_>
      <rects>
        <_>
          8 0 4 6 -1.</_>
        <_>
          8 2 4 2 3.</_></rects>
      <tilted>0</tilted></_>
    <_>
      <rects>
        <_>
          8 0 5 2 -1.</_>
        <_>
          8 1 5 1 2.</_></rects>
      <tilted>0</tilted></_>
    <_>
      <rects>
        <_>
          8 0 12 2 -1.</_>
        <_>
          8 0 6 1 2.</_>
        <_>
          14 1 6 1 2.</_></rects>
      <tilted>0</tilted></_>
    <_>
      <rects>
        <_>
          8 1 9 10 -1.</_>
        <_>
          11 1 3 10 3.</_></rects>
      <tilted>0</tilted></_>
    <_>
      <rects>
        <_>
          8 1 4 2 -1.</_>
        <_>
          8 2 4 1 2.</_></rects>
      <tilted>0</tilted></_>
    <_>
      <rects>
        <_>
          8 2 6 3 -1.</_>
        <_>
          11 2 3 3 2.</_></rects>
      <tilted>0</tilted></_>
    <_>
      <rects>
        <_>
          8 2 6 4 -1.</_>
        <_>
          11 2 3 4 2.</_></rects>
      <tilted>0</tilted></_>
    <_>
      <rects>
        <_>
          8 2 4 3 -1.</_>
        <_>
          8 3 4 1 3.</_></rects>
      <tilted>0</tilted></_>
    <_>
      <rects>
        <_>
          8 2 4 6 -1.</_>
        <_>
          8 5 4 3 2.</_></rects>
      <tilted>0</tilted></_>
    <_>
      <rects>
        <_>
          8 4 1 2 -1.</_>
        <_>
          8 5 1 1 2.</_></rects>
      <tilted>0</tilted></_>
    <_>
      <rects>
        <_>
          9 0 1 3 -1.</_>
        <_>
          9 1 1 1 3.</_></rects>
      <tilted>0</tilted></_>
    <_>
      <rects>
        <_>
          9 0 2 2 -1.</_>
        <_>
          9 1 2 1 2.</_></rects>
      <tilted>0</tilted></_>
    <_>
      <rects>
        <_>
          9 1 1 3 -1.</_>
        <_>
          9 2 1 1 3.</_></rects>
      <tilted>0</tilted></_>
    <_>
      <rects>
        <_>
          9 1 1 6 -1.</_>
        <_>
          9 4 1 3 2.</_></rects>
      <tilted>0</tilted></_>
    <_>
      <rects>
        <_>
          9 1 2 6 -1.</_>
        <_>
          9 4 2 3 2.</_></rects>
      <tilted>0</tilted></_>
    <_>
      <rects>
        <_>
          9 2 1 3 -1.</_>
        <_>
          9 3 1 1 3.</_></rects>
      <tilted>0</tilted></_>
    <_>
      <rects>
        <_>
          9 5 6 4 -1.</_>
        <_>
          12 5 3 4 2.</_></rects>
      <tilted>0</tilted></_>
    <_>
      <rects>
        <_>
          9 6 6 4 -1.</_>
        <_>
          12 6 3 4 2.</_></rects>
      <tilted>0</tilted></_>
    <_>
      <rects>
        <_>
          9 13 4 3 -1.</_>
        <_>
          11 13 2 3 2.</_></rects>
      <tilted>0</tilted></_>
    <_>
      <rects>
        <_>
          10 0 1 2 -1.</_>
        <_>
          10 1 1 1 2.</_></rects>
      <tilted>0</tilted></_>
    <_>
      <rects>
        <_>
          10 1 1 2 -1.</_>
        <_>
          10 2 1 1 2.</_></rects>
      <tilted>0</tilted></_>
    <_>
      <rects>
        <_>
          10 1 1 6 -1.</_>
        <_>
          10 4 1 3 2.</_></rects>
      <tilted>0</tilted></_>
    <_>
      <rects>
        <_>
          10 1 3 5 -1.</_>
        <_>
          11 1 1 5 3.</_></rects>
      <tilted>0</tilted></_>
    <_>
      <rects>
        <_>
          10 3 3 3 -1.</_>
        <_>
          11 3 1 3 3.</_></rects>
      <tilted>0</tilted></_>
    <_>
      <rects>
        <_>
          10 4 1 3 -1.</_>
        <_>
          10 5 1 1 3.</_></rects>
      <tilted>0</tilted></_>
    <_>
      <rects>
        <_>
          10 4 3 2 -1.</_>
        <_>
          11 4 1 2 3.</_></rects>
      <tilted>0</tilted></_>
    <_>
      <rects>
        <_>
          10 5 6 4 -1.</_>
        <_>
          13 5 3 4 2.</_></rects>
      <tilted>0</tilted></_>
    <_>
      <rects>
        <_>
          11 1 4 3 -1.</_>
        <_>
          13 1 2 3 2.</_></rects>
      <tilted>0</tilted></_>
    <_>
      <rects>
        <_>
          11 2 6 2 -1.</_>
        <_>
          14 2 3 2 2.</_></rects>
      <tilted>0</tilted></_>
    <_>
      <rects>
        <_>
          11 3 3 3 -1.</_>
        <_>
          12 3 1 3 3.</_></rects>
      <tilted>0</tilted></_>
    <_>
      <rects>
        <_>
          11 4 1 2 -1.</_>
        <_>
          11 5 1 1 2.</_></rects>
      <tilted>0</tilted></_>
    <_>
      <rects>
        <_>
          11 4 3 5 -1.</_>
        <_>
          12 4 1 5 3.</_></rects>
      <tilted>0</tilted></_>
    <_>
      <rects>
        <_>
          11 5 3 1 -1.</_>
        <_>
          12 5 1 1 3.</_></rects>
      <tilted>0</tilted></_>
    <_>
      <rects>
        <_>
          11 9 6 3 -1.</_>
        <_>
          13 9 2 3 3.</_></rects>
      <tilted>0</tilted></_>
    <_>
      <rects>
        <_>
          11 9 6 5 -1.</_>
        <_>
          13 9 2 5 3.</_></rects>
      <tilted>0</tilted></_>
    <_>
      <rects>
        <_>
          12 1 1 3 -1.</_>
        <_>
          12 2 1 1 3.</_></rects>
      <tilted>0</tilted></_>
    <_>
      <rects>
        <_>
          12 4 3 10 -1.</_>
        <_>
          12 9 3 5 2.</_></rects>
      <tilted>0</tilted></_>
    <_>
      <rects>
        <_>
          12 4 3 12 -1.</_>
        <_>
          12 10 3 6 2.</_></rects>
      <tilted>0</tilted></_>
    <_>
      <rects>
        <_>
          12 10 2 1 -1.</_>
        <_>
          13 10 1 1 2.</_></rects>
      <tilted>0</tilted></_>
    <_>
      <rects>
        <_>
          12 10 2 2 -1.</_>
        <_>
          13 10 1 2 2.</_></rects>
      <tilted>0</tilted></_>
    <_>
      <rects>
        <_>
          12 12 2 1 -1.</_>
        <_>
          13 12 1 1 2.</_></rects>
      <tilted>0</tilted></_>
    <_>
      <rects>
        <_>
          13 1 1 16 -1.</_>
        <_>
          13 9 1 8 2.</_></rects>
      <tilted>0</tilted></_>
    <_>
      <rects>
        <_>
          13 3 1 14 -1.</_>
        <_>
          13 10 1 7 2.</_></rects>
      <tilted>0</tilted></_>
    <_>
      <rects>
        <_>
          13 5 2 6 -1.</_>
        <_>
          14 5 1 6 2.</_></rects>
      <tilted>0</tilted></_>
    <_>
      <rects>
        <_>
          13 7 2 4 -1.</_>
        <_>
          13 9 2 2 2.</_></rects>
      <tilted>0</tilted></_>
    <_>
      <rects>
        <_>
          13 8 2 5 -1.</_>
        <_>
          14 8 1 5 2.</_></rects>
      <tilted>0</tilted></_>
    <_>
      <rects>
        <_>
          13 8 3 5 -1.</_>
        <_>
          14 8 1 5 3.</_></rects>
      <tilted>0</tilted></_>
    <_>
      <rects>
        <_>
          13 8 6 6 -1.</_>
        <_>
          16 8 3 6 2.</_></rects>
      <tilted>0</tilted></_>
    <_>
      <rects>
        <_>
          13 9 2 2 -1.</_>
        <_>
          14 9 1 2 2.</_></rects>
      <tilted>0</tilted></_>
    <_>
      <rects>
        <_>
          13 9 1 6 -1.</_>
        <_>
          13 12 1 3 2.</_></rects>
      <tilted>0</tilted></_>
    <_>
      <rects>
        <_>
          13 9 3 3 -1.</_>
        <_>
          14 9 1 3 3.</_></rects>
      <tilted>0</tilted></_>
    <_>
      <rects>
        <_>
          13 10 2 3 -1.</_>
        <_>
          13 11 2 1 3.</_></rects>
      <tilted>0</tilted></_>
    <_>
      <rects>
        <_>
          13 12 2 6 -1.</_>
        <_>
          13 15 2 3 2.</_></rects>
      <tilted>0</tilted></_>
    <_>
      <rects>
        <_>
          14 3 1 10 -1.</_>
        <_>
          14 8 1 5 2.</_></rects>
      <tilted>0</tilted></_>
    <_>
      <rects>
        <_>
          14 6 2 5 -1.</_>
        <_>
          15 6 1 5 2.</_></rects>
      <tilted>0</tilted></_>
    <_>
      <rects>
        <_>
          14 8 1 3 -1.</_>
        <_>
          14 9 1 1 3.</_></rects>
      <tilted>0</tilted></_>
    <_>
      <rects>
        <_>
          14 9 1 2 -1.</_>
        <_>
          14 10 1 1 2.</_></rects>
      <tilted>0</tilted></_>
    <_>
      <rects>
        <_>
          14 9 1 3 -1.</_>
        <_>
          14 10 1 1 3.</_></rects>
      <tilted>0</tilted></_>
    <_>
      <rects>
        <_>
          14 9 1 4 -1.</_>
        <_>
          14 11 1 2 2.</_></rects>
      <tilted>0</tilted></_>
    <_>
      <rects>
        <_>
          14 10 1 2 -1.</_>
        <_>
          14 11 1 1 2.</_></rects>
      <tilted>0</tilted></_>
    <_>
      <rects>
        <_>
          14 10 1 3 -1.</_>
        <_>
          14 11 1 1 3.</_></rects>
      <tilted>0</tilted></_>
    <_>
      <rects>
        <_>
          14 10 1 4 -1.</_>
        <_>
          14 12 1 2 2.</_></rects>
      <tilted>0</tilted></_>
    <_>
      <rects>
        <_>
          15 2 1 6 -1.</_>
        <_>
          15 5 1 3 2.</_></rects>
      <tilted>0</tilted></_></features></cascade>
</opencv_storage>
